-0.08991416543722153 0.3780917525291443 -0.23667068779468536 0.04898761585354805 0.533301830291748 -0.2305779755115509 -0.16046467423439026 -0.024614272639155388 0.15392965078353882 0.2624191343784332 0.3968619108200073 -0.29812973737716675 -0.08316372334957123 0.46352675557136536 -0.0018301941454410553 0.09451715648174286 -0.32642507553100586 -0.1287572979927063 -0.05142051726579666 -0.08105377107858658 0.08664888143539429 -0.2649160325527191 0.4409935474395752 -0.1459992676973343 -0.1680888831615448 -0.18266189098358154 -0.023214681074023247 -0.20776383578777313 -0.16645003855228424 -0.22538144886493683 -0.19384443759918213 -0.13595475256443024 -0.16374413669109344 -0.14446617662906647 -0.19130466878414154 0.5699784755706787 -0.1789391189813614 -0.3251080811023712 -0.37556660175323486 -0.07603272795677185 -0.11296737939119339 -0.17639805376529694 -0.019738713279366493 -0.5098899006843567 -0.08879857510328293 -0.11505933851003647 0.44766831398010254 0.6896629333496094 0.11835319548845291 -0.1433979719877243 -0.25495967268943787 -0.1369115114212036 -0.2092609703540802 -0.08130230009555817 0.38136056065559387 -0.3008114695549011 0.7213669419288635 0.1343221515417099 -0.19494162499904633 -0.11258027702569962 1.0413185358047485 -0.27799955010414124 0.5044934749603271 0.9041346907615662 
1.0267069339752197 -0.11515641212463379 0.500045120716095 0.578183650970459 -0.2829783856868744 -0.12867005169391632 0.39902642369270325 -0.08648517727851868 -0.197834774851799 -0.17845432460308075 -0.12902304530143738 -0.14887623488903046 -0.06888863444328308 -0.08355120569467545 -0.1322147399187088 -0.06569758802652359 -0.1378622055053711 -0.15044039487838745 0.56520015001297 -0.1865912824869156 -0.07535780966281891 -0.1703263372182846 0.5800458788871765 -0.12881454825401306 -0.04170871526002884 1.0213916301727295 -0.12265928834676743 0.6460015773773193 -0.08167371153831482 -0.11134912073612213 -0.11055003851652145 -0.08861146867275238 -0.11547879129648209 -0.022204464301466942 -0.12619398534297943 0.11723175644874573 -0.07438724488019943 -0.1101357713341713 -0.1935366541147232 -0.08923043310642242 -0.11830990016460419 -0.14747929573059082 -0.13049456477165222 -0.17746412754058838 -0.10999439656734467 -0.12003985792398453 -0.18579460680484772 -0.14606186747550964 -0.05587980896234512 -0.1564522534608841 -0.10311664640903473 -0.12388719618320465 -0.2708732783794403 -0.1002039685845375 -0.10292409360408783 0.9297322630882263 0.22659482061862946 -0.07452338933944702 -0.15414448082447052 -0.025699583813548088 -0.1793791651725769 -0.10456907004117966 -0.17987769842147827 -0.216647207736969 
-0.13787050545215607 -0.31352829933166504 -0.28513193130493164 -0.18479879200458527 -0.18751654028892517 -0.25932586193084717 -0.1351609081029892 -0.22052335739135742 0.31429561972618103 0.633901059627533 0.22982467710971832 0.7499958872795105 0.4981308877468109 0.29436805844306946 -0.16565285623073578 -0.05289014056324959 0.39748671650886536 -0.15980689227581024 -0.02438117377460003 -0.08444254845380783 -0.28217411041259766 -0.3343440592288971 -0.09429154545068741 -0.2078738510608673 0.015761204063892365 -0.0917886272072792 -0.2576929032802582 -0.20473815500736237 -0.2719500660896301 -0.0868987888097763 -0.28036296367645264 -0.14277376234531403 -0.20782145857810974 -0.1180940493941307 -0.2745923697948456 -0.3071759045124054 -0.17762617766857147 0.7747124433517456 0.8497374057769775 0.47692617774009705 -0.22600392997264862 -0.24994412064552307 -0.15889136493206024 0.6821687817573547 -0.4144187569618225 -0.18741346895694733 -0.1652359664440155 0.5038527846336365 1.0407228469848633 -0.2129344344139099 0.5852708220481873 -0.14918510615825653 -0.19979572296142578 -0.040016137063503265 -0.118443064391613 -0.1684241145849228 -0.26675868034362793 -0.22607751190662384 -0.11723855882883072 -0.10466482490301132 -0.28674712777137756 0.17033661901950836 0.36929866671562195 0.1725570410490036 
-0.08407380431890488 -0.13646291196346283 -0.22088779509067535 -0.1399017870426178 -0.1902519166469574 -0.39566925168037415 -0.13228853046894073 0.27469539642333984 -0.2626952528953552 0.6049612164497375 -0.14881396293640137 -0.32669007778167725 -0.08368787914514542 -0.1568414270877838 0.31288638710975647 0.11894143372774124 0.43138980865478516 -0.05280716344714165 -0.10295255482196808 -0.12404807657003403 0.38013216853141785 -0.29668328166007996 -0.12072520703077316 0.5405793190002441 0.8612972497940063 -0.054168950766325 0.8405340909957886 -0.009286906570196152 0.40519478917121887 -0.09520521014928818 0.7368533611297607 -0.0645940974354744 -0.31474432349205017 -0.09197176247835159 0.695440411567688 0.36271852254867554 -0.11999613046646118 -0.25107210874557495 -0.10656441748142242 -0.2242749035358429 -0.2876755893230438 0.03529971465468407 0.04561559483408928 0.6385971307754517 0.8995617628097534 -0.22622650861740112 -0.2156553864479065 -0.18760687112808228 -0.19399045407772064 -0.16559998691082 -0.21211877465248108 -0.14107413589954376 0.06319551169872284 -0.12735684216022491 0.07272696495056152 -0.1781112402677536 -0.19805623590946198 -0.1453627496957779 -0.16705988347530365 -0.1876876950263977 -0.10348739475011826 -0.1767083704471588 -0.05321943759918213 -0.30122122168540955 
-0.13843560218811035 0.9615664482116699 -0.22807124257087708 -0.14210918545722961 -0.12829139828681946 0.8892109990119934 -0.16012796759605408 -0.17851005494594574 -0.02668246068060398 -0.2949126958847046 -0.164012610912323 -0.2646959125995636 -0.21776442229747772 0.3716338872909546 -0.16415420174598694 -0.14921042323112488 -0.13319295644760132 0.6594370603561401 0.1346787065267563 -0.1836380511522293 -0.2349959909915924 0.6358122229576111 -0.14652957022190094 -0.16244347393512726 -0.037237498909235 -0.14442956447601318 -0.13232256472110748 -0.18399672210216522 -0.22225330770015717 -0.10232556611299515 -0.19437114894390106 -0.19446778297424316 -0.17768026888370514 -0.1509297788143158 0.7132114768028259 -0.1604478359222412 -0.18073484301567078 -0.20037558674812317 0.9607570171356201 -0.385501891374588 0.7323599457740784 0.6999340057373047 -0.13570547103881836 0.3403182327747345 -0.2820470333099365 -0.17043593525886536 -0.13980776071548462 0.041319772601127625 -0.2732037603855133 -0.15852122008800507 -0.0579872690141201 -0.10352884232997894 0.00519704632461071 0.2427842617034912 0.21130791306495667 -0.28127941489219666 -0.09178303182125092 -0.20183125138282776 -0.05587906762957573 0.31885403394699097 -0.0931721106171608 -0.32445457577705383 -0.291937917470932 -0.21746118366718292 
-0.019841957837343216 -0.09840112924575806 -0.20667673647403717 -0.07332780212163925 -0.11140671372413635 -0.2665558457374573 -0.12141884118318558 0.3377455770969391 -0.19963842630386353 -0.10537496954202652 -0.17207634449005127 0.014509588479995728 0.39138883352279663 -0.15767231583595276 -0.1454104781150818 -0.1682104915380478 -0.268477201461792 -0.2396431416273117 -0.07088107615709305 -0.04707513004541397 0.31302064657211304 0.8936232328414917 -0.0838867574930191 -0.10749972611665726 -0.17352691292762756 -0.07956071943044662 0.22836102545261383 -0.08166005462408066 0.17331908643245697 -0.06274571269750595 -0.04868486151099205 -0.27064278721809387 1.2330875396728516 -0.14088518917560577 -0.20237912237644196 -0.16144178807735443 -0.2286083996295929 0.7252209186553955 -0.2704715430736542 -0.08400697261095047 -0.17306193709373474 -0.11427898705005646 -0.20019902288913727 -0.14631468057632446 0.9646574258804321 0.48679786920547485 -0.17929720878601074 -0.16120529174804688 -0.12936420738697052 -0.13695265352725983 -0.15992586314678192 0.6057448983192444 -0.2891697883605957 0.6604087352752686 -0.20682241022586823 -0.22875887155532837 -0.0603441447019577 0.12675516307353973 -0.12888698279857635 0.3729906678199768 -0.3149803876876831 -0.0457342155277729 -0.16111527383327484 -0.21933937072753906 
-0.09001683443784714 -0.2009717971086502 0.529891312122345 -0.09994415938854218 -0.11592575162649155 -0.24668003618717194 -0.0030009967740625143 -0.10731568187475204 -0.20594194531440735 -0.13883544504642487 -0.18331503868103027 0.6142453551292419 -0.11697806417942047 -0.18507006764411926 -0.04405630752444267 -0.046558622270822525 -0.2408364713191986 0.5485969185829163 -0.09763633459806442 -0.03307487815618515 -0.20223368704319 -0.31034424901008606 -0.08150718361139297 0.5924236178398132 -0.11817341297864914 -0.09530016034841537 -0.16826969385147095 -0.10295730084180832 -0.1804884821176529 0.009887296706438065 0.48140081763267517 -0.09879877418279648 -0.16800393164157867 0.0034900461323559284 -0.20166583359241486 -0.14162525534629822 -0.17466317117214203 -0.2789464592933655 -0.21381776034832 0.47446930408477783 -0.21843411028385162 0.49034383893013 -0.1136697456240654 -0.21770888566970825 -0.18448767066001892 0.6754629015922546 -0.057700544595718384 -0.194644957780838 -0.17193028330802917 1.5105639696121216 0.4313223361968994 -0.14403927326202393 -0.13995742797851562 -0.09299024194478989 0.18323959410190582 -0.2344207614660263 -0.05790114402770996 0.002171265659853816 -0.14629431068897247 -0.11005131155252457 -0.1828124225139618 -0.14325900375843048 0.32296741008758545 -0.20536717772483826 
-0.10439525544643402 -0.27881237864494324 -0.09987927228212357 -0.1370241940021515 -0.031890515238046646 0.9191729426383972 -0.1330515444278717 -0.1613629311323166 -0.18670658767223358 -0.22755546867847443 -0.1337738037109375 -0.11749893426895142 -0.1317012757062912 -0.19693274796009064 0.22784902155399323 -0.08134337514638901 0.32574763894081116 -0.25978437066078186 -0.127214714884758 -0.06687808781862259 0.35645341873168945 0.1905926913022995 -0.14187496900558472 -0.12267792969942093 -0.11172128468751907 -0.02473774552345276 -0.03553358092904091 -0.1253972351551056 0.632519006729126 -0.06442464143037796 -0.12445787340402603 1.210311770439148 0.20548340678215027 -0.058130085468292236 -0.21858848631381989 -0.1008608490228653 -0.11443764716386795 -0.1112779974937439 -0.2830986976623535 0.18498177826404572 0.5584738850593567 -0.2844932973384857 -0.1221960112452507 -0.2671127915382385 -0.32439976930618286 -0.1199885830283165 0.3868090808391571 -0.156727597117424 -0.06190264970064163 -0.1901688128709793 -0.060600798577070236 -0.14118342101573944 -0.05552772060036659 -0.21129973232746124 -0.18321700394153595 -0.23583529889583588 -0.0735207051038742 0.5344900488853455 -0.12328830361366272 -0.03318650275468826 -0.10871516913175583 1.2251641750335693 -0.12395863234996796 -0.08663402497768402 
-0.1489109992980957 -0.08078233152627945 0.5125653743743896 0.3159131705760956 -0.20581765472888947 -0.11973580718040466 -0.1899682730436325 0.30605754256248474 0.7963401675224304 -0.28347542881965637 0.5066670775413513 -0.12477653473615646 -0.10114561766386032 -0.20344986021518707 -0.13044610619544983 -0.10902323573827744 -0.055424001067876816 -0.13757874071598053 -0.059295106679201126 -0.04227354750037193 -0.20603711903095245 -0.1490289568901062 -0.20028184354305267 -0.12473658472299576 -0.10446707159280777 -0.13662482798099518 -0.19513578712940216 0.5348426699638367 -0.18179412186145782 0.7957872152328491 -0.13002903759479523 -0.15546980500221252 -0.10640940815210342 -0.1765003353357315 -0.121859610080719 -0.29304882884025574 0.5888791084289551 -0.07298685610294342 -0.22133231163024902 -0.18742111325263977 -0.0579085648059845 -0.1356838494539261 0.943270742893219 -0.18012671172618866 -0.2604505717754364 -0.12517592310905457 -0.15069833397865295 -0.28713086247444153 -0.1472058892250061 -0.16209009289741516 -0.0974985882639885 -0.126714289188385 0.40120723843574524 -0.08306092023849487 -0.16729290783405304 -0.3636288046836853 -0.01681087538599968 -0.1307997703552246 1.0093306303024292 -0.05871833860874176 0.4329969882965088 -0.15943042933940887 -0.2862825393676758 0.13895681500434875 
-0.21327075362205505 -0.11555910855531693 -0.2652060091495514 -0.16600710153579712 0.7207591533660889 -0.16117024421691895 0.6364626884460449 -0.13969086110591888 -0.18505777418613434 -0.2726599872112274 -0.2023385465145111 -0.0980999618768692 -0.08618801087141037 -0.14601081609725952 0.2430313378572464 0.4594804048538208 0.007581016980111599 -0.07923079282045364 -0.16610771417617798 0.8490808010101318 -0.1354406327009201 -0.19439895451068878 -0.15193113684654236 -0.13296262919902802 -0.1221446692943573 -0.21212053298950195 -0.13408075273036957 -0.26503461599349976 -0.10642331093549728 -0.05734730139374733 -0.13595956563949585 -0.05900963023304939 -0.1846916228532791 0.8996902704238892 -0.07207035273313522 0.11466489732265472 0.6604862213134766 -0.15005192160606384 -0.146113783121109 -0.08990755677223206 -0.09645853191614151 -0.11729270219802856 -0.10799532383680344 -0.16246692836284637 -0.19964458048343658 -0.09793776273727417 0.25970539450645447 -0.10147517919540405 -0.12560608983039856 -0.18445003032684326 -0.0703844428062439 0.46076929569244385 0.6949715614318848 -0.16697843372821808 -0.06992729008197784 1.0615066289901733 -0.18279804289340973 -0.01913912408053875 0.07836765050888062 -0.059278327971696854 -0.20502258837223053 -0.16336028277873993 -0.10037249326705933 0.031009186059236526 
